tree
version=v4
num_class=1
num_tree_per_iteration=1
label_index=0
max_feature_idx=33
objective=binary sigmoid:1
feature_names=time_since_sim_swap_minutes is_loadshedding_coincident device_changed new_device_first_tx velocity_1h velocity_spike_ratio province_mismatch amount_zar amount_to_balance_ratio log_amount loadshedding_active loadshedding_stage hour_of_day is_weekend payment_rail_ATM payment_rail_CARD_CNP payment_rail_CARD_PRESENT payment_rail_CASH_DEPOSIT payment_rail_EFT payment_rail_MOBILE_APP payment_rail_PAYSHAP merchant_category_clothing merchant_category_crypto_exchange merchant_category_electronics merchant_category_fuel merchant_category_gambling merchant_category_grocery merchant_category_peer_transfer merchant_category_pharmacy merchant_category_restaurant merchant_category_spaza_shop merchant_category_taxi merchant_category_unknown merchant_category_utilities
feature_infos=[-1:1440] [0:1] [0:1] [0:1] none none [0:1] [5:100000] [0.00049995000499950004:9.9990000999900008] [1.791759469228055:11.512935464920229] [0:1] [0:2] [0:23] [0:1] [0:1] [0:1] [0:1] [0:1] [0:1] [0:1] [0:1] [0:1] [0:1] [0:1] [0:1] [0:1] [0:1] [0:1] [0:1] [0:1] [0:1] [0:1] [0:1] [0:1]
tree_sizes=6760

Tree=0
num_leaves=63
num_cat=0
split_feature=3 27 7 17 16 7 12 22 25 30 12 7 12 1 7 12 7 12 7 13 7 12 12 7 7 12 25 7 7 12 7 7 7 12 12 7 7 7 13 12 7 30 7 12 11 7 7 7 13 18 7 11 13 12 12 7 7 7 7 12 7 7
split_gain=1.2047e+08 9.93569e+07 3.60002e+07 2.67639e+07 8.4717e+06 8.14268e+06 4.88367e+06 3.38649e+06 6.92012e+06 6.80989e+06 2.58461e+06 1.85967e+06 934559 472154 483681 424152 411309 391422 392948 299295 290635 445606 186509 305941 175370 246459 168450 111883 640167 109367 97229.4 113116 144528 92957.2 131184 164488 88841.2 380830 87571.5 112723 82971.1 136268 76553.9 75499.6 91517.1 124838 70213.1 62419 76304.6 54566.8 83758.9 102132 94064.3 45259.1 62569.1 43674.4 41093.5 25246.3 21554.5 19355.6 16843.1 11432.8
threshold=1.0000000180025095e-35 1.0000000180025095e-35 99.500000000000014 1.0000000180025095e-35 1.0000000180025095e-35 3001.0000000000005 8.5000000000000018 1.0000000180025095e-35 1.0000000180025095e-35 1.0000000180025095e-35 9.5000000000000018 2999.5000000000005 1.0000000180025095e-35 1.0000000180025095e-35 13.500000000000002 21.500000000000004 56.055000000000007 19.500000000000004 2105.5000000000005 1.0000000180025095e-35 33.500000000000007 18.500000000000004 14.500000000000002 42.500000000000007 35.365000000000002 10.500000000000002 1.0000000180025095e-35 451.50000000000006 698.50000000000011 15.500000000000002 58.500000000000007 84.500000000000014 72.500000000000014 1.0000000180025095e-35 7.5000000000000009 69.500000000000014 34.500000000000007 22.500000000000004 1.0000000180025095e-35 8.5000000000000018 24.500000000000004 1.0000000180025095e-35 334.50000000000006 18.500000000000004 1.0000000180025095e-35 1542.5000000000002 24.500000000000004 69.500000000000014 1.0000000180025095e-35 1.0000000180025095e-35 967.50000000000011 1.0000000180025095e-35 1.0000000180025095e-35 13.500000000000002 15.500000000000002 46.500000000000007 62.500000000000007 1364.5000000000002 78.500000000000014 11.500000000000002 1364.5000000000002 28.500000000000004
decision_type=2 2 2 2 2 2 2 2 2 2 2 2 2 2 2 2 2 2 2 2 2 2 2 2 2 2 2 2 2 2 2 2 2 2 2 2 2 2 2 2 2 2 2 2 2 2 2 2 2 2 2 2 2 2 2 2 2 2 2 2 2 2
left_child=-1 2 3 4 6 10 26 8 9 -8 12 17 -3 14 -11 16 19 18 27 22 -21 -22 23 24 25 46 33 42 -29 49 -18 32 47 -2 -35 40 37 -24 -14 -40 41 -36 -12 44 45 -31 -16 48 56 50 -30 52 57 59 -55 -38 -32 -52 -34 -20 -19 -10
right_child=1 5 -4 -5 -6 -7 7 -9 61 13 11 -13 38 -15 15 -17 30 60 53 20 21 -23 36 -25 -26 -27 -28 28 29 43 31 -33 58 34 35 -37 55 -39 39 -41 -42 -43 -44 -45 -46 -47 -48 -49 -50 -51 51 -53 -54 54 -56 -57 -58 -59 -60 -61 -62 -63
leaf_value=-9.4581290991036617 234.32185454117811 505.57002161545478 -9.4581290991036617 -9.4581290991036617 -9.4581290991036617 599.99185594566711 -9.4581290991036617 599.99185594566552 597.89752595206585 557.47208674090166 352.59135653961317 -9.45812909910366 -9.4581290991036617 599.99185594564437 371.44810141945374 533.61611080376338 513.67490001730073 510.45180533004708 493.92238330612992 488.05205629085623 -9.4581290991036564 509.22270375594627 401.4070198595071 -9.4581290991036582 362.72505759453151 -9.4581290991036582 359.90548787707627 -9.4581290991036582 459.3495440287947 -9.4581290991036546 381.63276045317741 458.44972119067779 293.37415079675264 -9.4581290991036617 -9.4581290991036546 247.15238037921856 406.54867726272977 -9.4581290991036564 -9.4581290991036546 270.7487498365814 -9.45812909910366 324.48705747503027 488.05205629085407 418.22606188233397 354.39259783798184 311.30501014433912 187.13863082123842 483.02670059474423 471.68658874949034 454.88470880527859 286.03276194067598 459.34954402878003 429.78509466208715 520.49837473109062 377.49423233497845 293.37415079675264 264.45196583950587 182.49461276658832 195.39899908211495 552.57067245040616 557.47208674090439 577.3397310603001
leaf_weight=712.90631776198279 0.0082041192799801044 0.011649849009700008 3.287964977149386 0.63975723960902531 0.12617935810703773 1.2306178396102039 0.13905982574215137 0.28222169121727347 0.095495944377034903 0.035277711576782167 0.016572320717386901 0.025022564514074475 0.052670447272248566 0.026253180578351021 0.010501272510737181 0.033144640736281872 0.019115597300697118 0.034621382248587906 0.027811963518615812 0.032160146627575159 0.0089424902689643204 0.0077118718763813368 0.014603332034312189 0.014111085562035441 0.02149479219224304 0.011321684927679598 0.0054147186456248156 0.011567808513063937 0.02133070956915617 0.0059069660492241383 0.015341702790465206 0.042743460333440453 0.013208631949964911 0.039461814856622368 0.0062351308297365904 0.015587826608680189 0.0240380690083839 0.0091886138543486595 0.0072196251712739468 0.0071375837433151901 0.021166628343053162 0.0059890070115216076 0.028140128299128264 0.0093526957789435983 0.010993519681505859 0.0062351305969059467 0.010173107963055372 0.016244155704043806 0.01247026096098125 0.034457300091162324 0.013536796730477363 0.012798425741493702 0.0091065721935592592 0.015095578972250223 0.015505785180721432 0.013208631949964911 0.014603332267142832 0.010419231548439711 0.0097629019874148071 0.028468292846810073 0.0423332538921386 0.23176636040443555
leaf_count=8689614 61 25 40077 7798 1538 375 1695 86 33 40 85 305 642 8 50 53 38 71 66 80 109 16 61 172 106 138 27 141 65 72 70 131 83 481 76 112 98 112 88 48 258 34 70 36 56 37 85 42 35 108 87 39 33 28 72 83 100 88 80 35 48 173
internal_value=-7.43011 198.854 92.7951 258.237 381.233 533.012 420.166 449.24 400.999 293.419 353.024 407.125 92.2228 394.757 380.919 363.329 345.743 436.55 408.863 294.844 400.256 230.719 254.844 197.637 252.269 178.065 88.5242 368.658 347.427 378.204 408.689 392.554 358.049 73.3195 58.3842 113.044 318.203 242.728 20.3803 129.845 50.4387 154.153 437.845 298.345 249.882 155.258 280.756 399.683 367.764 403.728 377.494 339.422 292.998 496.978 448.038 366.414 324.487 241.001 251.735 523.589 536.318 583.339
internal_weight=719.915 7.0087 5.32013 2.03216 1.3924 1.68857 1.26622 1.16416 0.881943 0.554681 0.457954 0.379276 0.0786775 0.415621 0.389367 0.35409 0.320945 0.354254 0.277299 0.177455 0.0488145 0.0166544 0.128641 0.0676019 0.0534909 0.0319961 0.102059 0.190418 0.145705 0.134137 0.14349 0.124374 0.081631 0.0966445 0.0884404 0.0489786 0.0610386 0.0237919 0.0670277 0.0143572 0.0333908 0.0122241 0.0447124 0.0324883 0.0231356 0.0121421 0.0206744 0.0586595 0.0424153 0.101649 0.0671917 0.045861 0.0330626 0.0868816 0.0306014 0.0372467 0.029945 0.023956 0.0229715 0.0562803 0.0769546 0.327262
internal_count=8746573 56959 54239 14162 6364 2720 4826 3777 3691 3485 2345 1542 803 1790 1782 1742 1689 1237 1118 1110 205 125 905 551 379 273 1049 917 762 621 579 541 410 1022 961 480 354 173 778 136 368 110 155 201 165 109 135 247 205 420 312 247 208 201 100 181 170 175 163 101 119 206
is_linear=0
shrinkage=1


end of trees

feature_importances:
amount_zar=29
hour_of_day=16
is_weekend=4
loadshedding_stage=2
merchant_category_gambling=2
merchant_category_spaza_shop=2
is_loadshedding_coincident=1
new_device_first_tx=1
payment_rail_CARD_PRESENT=1
payment_rail_CASH_DEPOSIT=1
payment_rail_EFT=1
merchant_category_crypto_exchange=1
merchant_category_peer_transfer=1

parameters:
[boosting: gbdt]
[objective: binary]
[metric: auc]
[tree_learner: serial]
[device_type: cpu]
[data_sample_strategy: bagging]
[data: ]
[valid: ]
[num_iterations: 500]
[learning_rate: 0.05]
[num_leaves: 63]
[num_threads: 16]
[seed: 0]
[deterministic: 0]
[force_col_wise: 0]
[force_row_wise: 0]
[histogram_pool_size: -1]
[max_depth: -1]
[min_data_in_leaf: 50]
[min_sum_hessian_in_leaf: 0.001]
[bagging_fraction: 0.8]
[pos_bagging_fraction: 1]
[neg_bagging_fraction: 1]
[bagging_freq: 5]
[bagging_seed: 3]
[bagging_by_query: 0]
[feature_fraction: 0.8]
[feature_fraction_bynode: 1]
[feature_fraction_seed: 2]
[extra_trees: 0]
[extra_seed: 6]
[early_stopping_round: 50]
[early_stopping_min_delta: 0]
[first_metric_only: 0]
[max_delta_step: 0]
[lambda_l1: 0]
[lambda_l2: 0]
[linear_lambda: 0]
[min_gain_to_split: 0]
[drop_rate: 0.1]
[max_drop: 50]
[skip_drop: 0.5]
[xgboost_dart_mode: 0]
[uniform_drop: 0]
[drop_seed: 4]
[top_rate: 0.2]
[other_rate: 0.1]
[min_data_per_group: 100]
[max_cat_threshold: 32]
[cat_l2: 10]
[cat_smooth: 10]
[max_cat_to_onehot: 4]
[top_k: 20]
[monotone_constraints: ]
[monotone_constraints_method: basic]
[monotone_penalty: 0]
[feature_contri: ]
[forcedsplits_filename: ]
[refit_decay_rate: 0.9]
[cegb_tradeoff: 1]
[cegb_penalty_split: 0]
[cegb_penalty_feature_lazy: ]
[cegb_penalty_feature_coupled: ]
[path_smooth: 0]
[interaction_constraints: ]
[verbosity: -1]
[saved_feature_importance_type: 0]
[use_quantized_grad: 0]
[num_grad_quant_bins: 4]
[quant_train_renew_leaf: 0]
[stochastic_rounding: 1]
[linear_tree: 0]
[max_bin: 255]
[max_bin_by_feature: ]
[min_data_in_bin: 3]
[bin_construct_sample_cnt: 200000]
[data_random_seed: 1]
[is_enable_sparse: 1]
[enable_bundle: 1]
[use_missing: 1]
[zero_as_missing: 0]
[feature_pre_filter: 1]
[pre_partition: 0]
[two_round: 0]
[header: 0]
[label_column: ]
[weight_column: ]
[group_column: ]
[ignore_column: ]
[categorical_feature: ]
[forcedbins_filename: ]
[precise_float_parser: 0]
[parser_config_file: ]
[objective_seed: 5]
[num_class: 1]
[is_unbalance: 0]
[scale_pos_weight: 40]
[sigmoid: 1]
[boost_from_average: 1]
[reg_sqrt: 0]
[alpha: 0.9]
[fair_c: 1]
[poisson_max_delta_step: 0.7]
[tweedie_variance_power: 1.5]
[lambdarank_truncation_level: 30]
[lambdarank_norm: 1]
[label_gain: ]
[lambdarank_position_bias_regularization: 0]
[eval_at: ]
[multi_error_top_k: 1]
[auc_mu_weights: ]
[num_machines: 1]
[local_listen_port: 12400]
[time_out: 120]
[machine_list_filename: ]
[machines: ]
[gpu_platform_id: -1]
[gpu_device_id: -1]
[gpu_use_dp: 0]
[num_gpu: 1]

end of parameters

pandas_categorical:[]
